%YAML:1.0
---
opencv_ml_svm:
   format: 3
   svmType: ONE_CLASS
   kernel:
      type: RBF
      gamma: 0.5
   nu: 0.10000000000000001
   term_criteria: { epsilon:1.1920928955078125e-07, iterations:1000 }
   var_count: 3
   class_count: 1
   sv_total: 158
   support_vectors:
      - [ 0.820537925, 71.1999969, -2.31256154e+21 ]
      - [ 0.518134296, 71., -2.31256154e+21 ]
      - [ 0.777337372, 71.9000015, -2.31256154e+21 ]
      - [ 0.189810261, 68.9000015, -2.31256154e+21 ]
      - [ 0.25893119, 69.3000031, -2.31256154e+21 ]
      - [ 0.207090542, 68.4000015, -2.31256154e+21 ]
      - [ 0.112049364, 68.5, -2.31256154e+21 ]
      - [ 0.33237195, 68.5, -2.31256154e+21 ]
      - [ 0.40581286, 68.5999985, -2.31256154e+21 ]
      - [ 0.855098307, 70.1999969, -2.31256154e+21 ]
      - [ 0.673656106, 70.4000015, -2.31256154e+21 ]
      - [ 0.824857891, 70.6999969, -2.31256154e+21 ]
      - [ 1.62838745, 70.0999985, -2.31256154e+21 ]
      - [ 1.36918437, 70.4000015, -2.31256154e+21 ]
      - [ -0.22491464, 72.0999985, -2.31256154e+21 ]
      - [ -0.0996332392, 72., -2.31256154e+21 ]
      - [ -0.358836353, 72.3000031, -2.31256154e+21 ]
      - [ -1.69373226, 70.4000015, -2.31256154e+21 ]
      - [ -1.59005105, 70.3000031, -2.31256154e+21 ]
      - [ -1.59437108, 70., -2.31256154e+21 ]
      - [ -1.65917182, 71.1999969, -2.31256154e+21 ]
      - [ -1.58573091, 71.1999969, -2.31256154e+21 ]
      - [ -1.64621174, 71., -2.31256154e+21 ]
      - [ -0.164434016, 71.9000015, -2.31256154e+21 ]
      - [ 0.444693387, 65., -2.31256154e+21 ]
      - [ -0.829721868, 65.8000031, -2.31256154e+21 ]
      - [ -0.458197504, 65.9000015, -2.31256154e+21 ]
      - [ -0.764921129, 64.8000031, -2.31256154e+21 ]
      - [ -0.596439123, 65., -2.31256154e+21 ]
      - [ -1.758533, 64.6999969, -2.31256154e+21 ]
      - [ -1.76285315, 64.9000015, -2.31256154e+21 ]
      - [ -1.70669234, 65.3000031, -2.31256154e+21 ]
      - [ -1.74557292, 65.1999969, -2.31256154e+21 ]
      - [ -1.73693275, 65.3000031, -2.31256154e+21 ]
      - [ -1.74557292, 65.5999985, -2.31256154e+21 ]
      - [ -1.63757157, 62., -2.31256154e+21 ]
      - [ -1.79309332, 63.5, -2.31256154e+21 ]
      - [ -1.79309332, 63.5, -2.31256154e+21 ]
      - [ -1.74557292, 63.5999985, -2.31256154e+21 ]
      - [ -1.74557292, 63.4000015, -2.31256154e+21 ]
      - [ -1.55549049, 61.7999992, -2.31256154e+21 ]
      - [ -1.59005105, 61.7999992, -2.31256154e+21 ]
      - [ -1.18396616, 61.7000008, -2.31256154e+21 ]
      - [ -1.3783685, 61.7999992, -2.31256154e+21 ]
      - [ -1.78013325, 62.7999992, -2.31256154e+21 ]
      - [ -0.0391524471, 63.5999985, -2.31256154e+21 ]
      - [ -1.76285315, 63.5, -2.31256154e+21 ]
      - [ -0.613719285, 63.5, -2.31256154e+21 ]
      - [ -0.0348324589, 74.4000015, -2.31256154e+21 ]
      - [ 0.785977364, 67.5, -2.31256154e+21 ]
      - [ -0.78220135, 64.4000015, -2.31256154e+21 ]
      - [ -1.20124638, 61.7000008, -2.31256154e+21 ]
      - [ -1.38268852, 61.7000008, -2.31256154e+21 ]
      - [ -0.596439123, 61.7999992, -2.31256154e+21 ]
      - [ -0.579158902, 62.2000008, -2.31256154e+21 ]
      - [ -0.583478987, 62.2000008, -2.31256154e+21 ]
      - [ -0.643959701, 62.7000008, -2.31256154e+21 ]
      - [ 0.461973488, 63., -2.31256154e+21 ]
      - [ 0.323731959, 67.1999969, -2.31256154e+21 ]
      - [ -0.790841401, 67., -2.31256154e+21 ]
      - [ 0.410133004, 71.1999969, -2.31256154e+21 ]
      - [ -1.71101248, 68.5, -2.31256154e+21 ]
      - [ -1.71101248, 68.5999985, -2.31256154e+21 ]
      - [ 0.120689504, 69.1999969, -2.31256154e+21 ]
      - [ -0.2162745, 70., -2.31256154e+21 ]
      - [ -1.59869111, 69.5, -2.31256154e+21 ]
      - [ -1.6116513, 69.4000015, -2.31256154e+21 ]
      - [ -1.67213202, 68.9000015, -2.31256154e+21 ]
      - [ -1.67213202, 69., -2.31256154e+21 ]
      - [ -1.68941224, 67.3000031, -2.31256154e+21 ]
      - [ -1.68509209, 67.1999969, -2.31256154e+21 ]
      - [ -1.70237231, 67.3000031, -2.31256154e+21 ]
      - [ -1.6418916, 67.3000031, -2.31256154e+21 ]
      - [ -1.73693275, 67.3000031, -2.31256154e+21 ]
      - [ -1.67213202, 67.3000031, -2.31256154e+21 ]
      - [ -1.70237231, 68.3000031, -2.31256154e+21 ]
      - [ 1.51606619, 69.8000031, -2.31256154e+21 ]
      - [ -0.514358163, 66.6999969, -2.31256154e+21 ]
      - [ -0.890202641, 66.5, -2.31256154e+21 ]
      - [ -0.522998273, 67.6999969, -2.31256154e+21 ]
      - [ 0.483573735, 73.6999969, -2.31256154e+21 ]
      - [ -0.0909930989, 74.1999969, -2.31256154e+21 ]
      - [ -1.40860891, 75.0999985, -2.31256154e+21 ]
      - [ -0.527318239, 75., -2.31256154e+21 ]
      - [ 0.254611045, 74.9000015, -2.31256154e+21 ]
      - [ -1.17532599, 73.5999985, -2.31256154e+21 ]
      - [ -1.45612943, 73.1999969, -2.31256154e+21 ]
      - [ -1.46908951, 73., -2.31256154e+21 ]
      - [ -1.34380805, 73.0999985, -2.31256154e+21 ]
      - [ -1.46044958, 72.6999969, -2.31256154e+21 ]
      - [ -1.4950099, 71.8000031, -2.31256154e+21 ]
      - [ -1.46476948, 72.3000031, -2.31256154e+21 ]
      - [ -1.51661015, 71.5999985, -2.31256154e+21 ]
      - [ -1.68077207, 70.4000015, -2.31256154e+21 ]
      - [ 0.932859182, 76., -2.31256154e+21 ]
      - [ -1.21852648, 76.5999985, -2.31256154e+21 ]
      - [ -1.28332734, 75.5999985, -2.31256154e+21 ]
      - [ -0.449557364, 74.8000031, -2.31256154e+21 ]
      - [ -1.36972833, 74.9000015, -2.31256154e+21 ]
      - [ -1.38268852, 74.3000031, -2.31256154e+21 ]
      - [ -1.28332734, 73.6999969, -2.31256154e+21 ]
      - [ 1.30438352, 75.5, -2.31256154e+21 ]
      - [ 0.0731688291, 77.0999985, -2.31256154e+21 ]
      - [ -1.51229, 77.6999969, -2.31256154e+21 ]
      - [ -1.32652783, 76.9000015, -2.31256154e+21 ]
      - [ -1.30924761, 76., -2.31256154e+21 ]
      - [ -1.17100608, 76.3000031, -2.31256154e+21 ]
      - [ -1.40428877, 75.4000015, -2.31256154e+21 ]
      - [ -1.26172709, 75.4000015, -2.31256154e+21 ]
      - [ -0.376116455, 76.4000015, -2.31256154e+21 ]
      - [ -0.760601103, 76.5, -2.31256154e+21 ]
      - [ -1.24012685, 77.5, -2.31256154e+21 ]
      - [ -0.816761732, 78.0999985, -2.31256154e+21 ]
      - [ -1.11916542, 78.4000015, -2.31256154e+21 ]
      - [ -1.11052525, 78.3000031, -2.31256154e+21 ]
      - [ -1.32652783, 78., -2.31256154e+21 ]
      - [ -0.203314379, 77.4000015, -2.31256154e+21 ]
      - [ -0.302675545, 77.5999985, -2.31256154e+21 ]
      - [ -1.22284663, 78.0999985, -2.31256154e+21 ]
      - [ -0.989563823, 78.3000031, -2.31256154e+21 ]
      - [ 0.18549028, 79.1999969, -2.31256154e+21 ]
      - [ -0.972283661, 80.0999985, -2.31256154e+21 ]
      - [ -0.868602395, 79.9000015, -2.31256154e+21 ]
      - [ -1.18828619, 79.8000031, -2.31256154e+21 ]
      - [ -1.11484528, 79.8000031, -2.31256154e+21 ]
      - [ -0.522998273, 81.5, -2.31256154e+21 ]
      - [ -0.605079234, 81.9000015, -2.31256154e+21 ]
      - [ -1.21852648, 83.0999985, -2.31256154e+21 ]
      - [ -0.756281078, 85.1999969, -2.31256154e+21 ]
      - [ -1.1321255, 85.3000031, -2.31256154e+21 ]
      - [ -0.993883908, 85., -2.31256154e+21 ]
      - [ -1.31788778, 84.0999985, -2.31256154e+21 ]
      - [ -0.376116455, 85.0999985, -2.31256154e+21 ]
      - [ -0.0823529661, 83.5999985, -2.31256154e+21 ]
      - [ -1.32220781, 82.9000015, -2.31256154e+21 ]
      - [ -1.37404835, 82.6999969, -2.31256154e+21 ]
      - [ -1.27900732, 83., -2.31256154e+21 ]
      - [ -1.49068975, 84.0999985, -2.31256154e+21 ]
      - [ -1.30924761, 83.8000031, -2.31256154e+21 ]
      - [ -0.311315686, 84.0999985, -2.31256154e+21 ]
      - [ -0.445237368, 85.4000015, -2.31256154e+21 ]
      - [ -1.20124638, 84.6999969, -2.31256154e+21 ]
      - [ -1.06300473, 84.8000031, -2.31256154e+21 ]
      - [ -1.32652783, 84.5999985, -2.31256154e+21 ]
      - [ -0.402036846, 83.8000031, -2.31256154e+21 ]
      - [ -0.0045920657, 84.4000015, -2.31256154e+21 ]
      - [ -1.54253042, 82.0999985, -2.31256154e+21 ]
      - [ -1.55117059, 81.9000015, -2.31256154e+21 ]
      - [ -0.021872174, 82.0999985, -2.31256154e+21 ]
      - [ -0.423637122, 81.8000031, -2.31256154e+21 ]
      - [ -0.479797751, 81.6999969, -2.31256154e+21 ]
      - [ -1.65485191, 81.5, -2.31256154e+21 ]
      - [ -1.64621174, 81.1999969, -2.31256154e+21 ]
      - [ -1.64621174, 80.4000015, -2.31256154e+21 ]
      - [ -1.59437108, 80.4000015, -2.31256154e+21 ]
      - [ -1.66781199, 80.5, -2.31256154e+21 ]
      - [ -1.54253042, 80.1999969, -2.31256154e+21 ]
      - [ -1.68077207, 80.4000015, -2.31256154e+21 ]
   decision_functions:
      -
         sv_count: 158
         rho: 10.48653884494408
         alpha: [ 1., 1., 1., 1., 1., 1., 1., 1., 1., 1.,
             0.79719919762246294, 1., 1., 1., 1., 1., 1., 1.,
             0.93551372578906122, 1., 1., 1., 1., 0.69277040399195677,
             1., 0.97181806439644902, 1., 0.91625166008988601, 1.,
             0.63552580607782705, 1., 1., 1., 1., 1., 1., 1., 1., 1.,
             0.73808009086909843, 1., 1., 1., 0.63874912864590239,
             0.46547200402562661, 1., 1., 1., 1., 1., 1., 1., 1., 1., 1.,
             1., 0.40105229649577079, 1., 1., 0.26368118304424154, 1.,
             1., 1., 0.3297896993819317, 0.62403872047737519,
             0.44629134036513984, 1., 1., 1., 1., 1., 1.,
             0.14521964379762076, 1., 1., 0.70676894771977794, 1., 1.,
             1., 0.64699324519247603, 1., 1., 1., 0.50382895678623696,
             1., 0.88046995779038706, 1., 1., 1., 1.,
             0.50104401342659632, 1., 0.89831523828714865, 1., 1., 1.,
             1., 1., 1., 1., 1., 1., 1., 1., 1., 1., 1., 1.,
             0.38568231880166909, 1., 0.035675226612461905,
             0.19217146632651885, 0.46493677165452041, 1., 1., 1., 1.,
             1., 1., 1., 1., 1., 1., 1., 1., 1., 0.99289610547846774,
             0.33441051474468964, 1., 1., 1., 0.011829863997540713, 1.,
             1., 1., 1., 1., 1., 1., 1., 1., 1., 0.52756236018835345, 1.,
             1., 1., 1., 1., 1., 1., 1., 1., 0.85730482297939048, 1.,
             0.058657224943415187, 1., 1., 1. ]
